digraph Tree {
node [shape=box] ;
0 [label="X[8] <= 0.5\ngini = 0.397\nsamples = 487\nvalue = [354, 133]"] ;
1 [label="X[5] <= 0.5\ngini = 0.126\nsamples = 327\nvalue = [305, 22]"] ;
0 -> 1 [labeldistance=2.5, labelangle=45, headlabel="True"] ;
2 [label="X[4] <= 0.5\ngini = 0.062\nsamples = 281\nvalue = [272, 9]"] ;
1 -> 2 ;
3 [label="gini = 0.0\nsamples = 191\nvalue = [191, 0]"] ;
2 -> 3 ;
4 [label="X[1] <= 0.5\ngini = 0.18\nsamples = 90\nvalue = [81, 9]"] ;
2 -> 4 ;
5 [label="X[12] <= 0.5\ngini = 0.032\nsamples = 61\nvalue = [60, 1]"] ;
4 -> 5 ;
6 [label="gini = 0.0\nsamples = 58\nvalue = [58, 0]"] ;
5 -> 6 ;
7 [label="X[6] <= 0.5\ngini = 0.444\nsamples = 3\nvalue = [2, 1]"] ;
5 -> 7 ;
8 [label="gini = 0.0\nsamples = 2\nvalue = [2, 0]"] ;
7 -> 8 ;
9 [label="gini = 0.0\nsamples = 1\nvalue = [0, 1]"] ;
7 -> 9 ;
10 [label="X[9] <= 0.5\ngini = 0.4\nsamples = 29\nvalue = [21, 8]"] ;
4 -> 10 ;
11 [label="gini = 0.0\nsamples = 18\nvalue = [18, 0]"] ;
10 -> 11 ;
12 [label="X[0] <= 0.5\ngini = 0.397\nsamples = 11\nvalue = [3, 8]"] ;
10 -> 12 ;
13 [label="gini = 0.0\nsamples = 2\nvalue = [2, 0]"] ;
12 -> 13 ;
14 [label="X[3] <= 0.5\ngini = 0.198\nsamples = 9\nvalue = [1, 8]"] ;
12 -> 14 ;
15 [label="gini = 0.0\nsamples = 1\nvalue = [1, 0]"] ;
14 -> 15 ;
16 [label="gini = 0.0\nsamples = 8\nvalue = [0, 8]"] ;
14 -> 16 ;
17 [label="X[3] <= 0.5\ngini = 0.405\nsamples = 46\nvalue = [33, 13]"] ;
1 -> 17 ;
18 [label="X[10] <= 36.5\ngini = 0.142\nsamples = 26\nvalue = [24, 2]"] ;
17 -> 18 ;
19 [label="X[1] <= 0.5\ngini = 0.08\nsamples = 24\nvalue = [23, 1]"] ;
18 -> 19 ;
20 [label="gini = 0.0\nsamples = 18\nvalue = [18, 0]"] ;
19 -> 20 ;
21 [label="X[2] <= 0.5\ngini = 0.278\nsamples = 6\nvalue = [5, 1]"] ;
19 -> 21 ;
22 [label="gini = 0.0\nsamples = 5\nvalue = [5, 0]"] ;
21 -> 22 ;
23 [label="gini = 0.0\nsamples = 1\nvalue = [0, 1]"] ;
21 -> 23 ;
24 [label="X[0] <= 0.5\ngini = 0.5\nsamples = 2\nvalue = [1, 1]"] ;
18 -> 24 ;
25 [label="gini = 0.0\nsamples = 1\nvalue = [1, 0]"] ;
24 -> 25 ;
26 [label="gini = 0.0\nsamples = 1\nvalue = [0, 1]"] ;
24 -> 26 ;
27 [label="X[7] <= 0.5\ngini = 0.495\nsamples = 20\nvalue = [9, 11]"] ;
17 -> 27 ;
28 [label="X[12] <= 0.5\ngini = 0.245\nsamples = 7\nvalue = [6, 1]"] ;
27 -> 28 ;
29 [label="gini = 0.0\nsamples = 5\nvalue = [5, 0]"] ;
28 -> 29 ;
30 [label="X[10] <= 28.0\ngini = 0.5\nsamples = 2\nvalue = [1, 1]"] ;
28 -> 30 ;
31 [label="gini = 0.0\nsamples = 1\nvalue = [1, 0]"] ;
30 -> 31 ;
32 [label="gini = 0.0\nsamples = 1\nvalue = [0, 1]"] ;
30 -> 32 ;
33 [label="X[6] <= 0.5\ngini = 0.355\nsamples = 13\nvalue = [3, 10]"] ;
27 -> 33 ;
34 [label="X[2] <= 0.5\ngini = 0.5\nsamples = 6\nvalue = [3, 3]"] ;
33 -> 34 ;
35 [label="gini = 0.0\nsamples = 2\nvalue = [2, 0]"] ;
34 -> 35 ;
36 [label="X[1] <= 0.5\ngini = 0.375\nsamples = 4\nvalue = [1, 3]"] ;
34 -> 36 ;
37 [label="gini = 0.0\nsamples = 1\nvalue = [1, 0]"] ;
36 -> 37 ;
38 [label="gini = 0.0\nsamples = 3\nvalue = [0, 3]"] ;
36 -> 38 ;
39 [label="gini = 0.0\nsamples = 7\nvalue = [0, 7]"] ;
33 -> 39 ;
40 [label="X[4] <= 0.5\ngini = 0.425\nsamples = 160\nvalue = [49, 111]"] ;
0 -> 40 [labeldistance=2.5, labelangle=-45, headlabel="False"] ;
41 [label="X[10] <= 19.5\ngini = 0.18\nsamples = 30\nvalue = [27, 3]"] ;
40 -> 41 ;
42 [label="gini = 0.0\nsamples = 1\nvalue = [0, 1]"] ;
41 -> 42 ;
43 [label="X[6] <= 0.5\ngini = 0.128\nsamples = 29\nvalue = [27, 2]"] ;
41 -> 43 ;
44 [label="gini = 0.0\nsamples = 22\nvalue = [22, 0]"] ;
43 -> 44 ;
45 [label="X[2] <= 0.5\ngini = 0.408\nsamples = 7\nvalue = [5, 2]"] ;
43 -> 45 ;
46 [label="gini = 0.0\nsamples = 5\nvalue = [5, 0]"] ;
45 -> 46 ;
47 [label="gini = 0.0\nsamples = 2\nvalue = [0, 2]"] ;
45 -> 47 ;
48 [label="X[9] <= 0.5\ngini = 0.281\nsamples = 130\nvalue = [22, 108]"] ;
40 -> 48 ;
49 [label="X[0] <= 0.5\ngini = 0.496\nsamples = 22\nvalue = [12, 10]"] ;
48 -> 49 ;
50 [label="gini = 0.0\nsamples = 5\nvalue = [5, 0]"] ;
49 -> 50 ;
51 [label="X[2] <= 0.5\ngini = 0.484\nsamples = 17\nvalue = [7, 10]"] ;
49 -> 51 ;
52 [label="X[13] <= 0.5\ngini = 0.408\nsamples = 7\nvalue = [5, 2]"] ;
51 -> 52 ;
53 [label="gini = 0.0\nsamples = 5\nvalue = [5, 0]"] ;
52 -> 53 ;
54 [label="gini = 0.0\nsamples = 2\nvalue = [0, 2]"] ;
52 -> 54 ;
55 [label="X[7] <= 0.5\ngini = 0.32\nsamples = 10\nvalue = [2, 8]"] ;
51 -> 55 ;
56 [label="X[6] <= 0.5\ngini = 0.5\nsamples = 4\nvalue = [2, 2]"] ;
55 -> 56 ;
57 [label="X[10] <= 38.0\ngini = 0.444\nsamples = 3\nvalue = [2, 1]"] ;
56 -> 57 ;
58 [label="gini = 0.0\nsamples = 2\nvalue = [2, 0]"] ;
57 -> 58 ;
59 [label="gini = 0.0\nsamples = 1\nvalue = [0, 1]"] ;
57 -> 59 ;
60 [label="gini = 0.0\nsamples = 1\nvalue = [0, 1]"] ;
56 -> 60 ;
61 [label="gini = 0.0\nsamples = 6\nvalue = [0, 6]"] ;
55 -> 61 ;
62 [label="X[5] <= 0.5\ngini = 0.168\nsamples = 108\nvalue = [10, 98]"] ;
48 -> 62 ;
63 [label="X[7] <= 0.5\ngini = 0.437\nsamples = 31\nvalue = [10, 21]"] ;
62 -> 63 ;
64 [label="X[10] <= 37.5\ngini = 0.278\nsamples = 6\nvalue = [5, 1]"] ;
63 -> 64 ;
65 [label="gini = 0.0\nsamples = 5\nvalue = [5, 0]"] ;
64 -> 65 ;
66 [label="gini = 0.0\nsamples = 1\nvalue = [0, 1]"] ;
64 -> 66 ;
67 [label="X[0] <= 0.5\ngini = 0.32\nsamples = 25\nvalue = [5, 20]"] ;
63 -> 67 ;
68 [label="X[2] <= 0.5\ngini = 0.375\nsamples = 4\nvalue = [3, 1]"] ;
67 -> 68 ;
69 [label="gini = 0.0\nsamples = 1\nvalue = [0, 1]"] ;
68 -> 69 ;
70 [label="gini = 0.0\nsamples = 3\nvalue = [3, 0]"] ;
68 -> 70 ;
71 [label="X[3] <= 0.5\ngini = 0.172\nsamples = 21\nvalue = [2, 19]"] ;
67 -> 71 ;
72 [label="X[2] <= 0.5\ngini = 0.48\nsamples = 5\nvalue = [2, 3]"] ;
71 -> 72 ;
73 [label="gini = 0.0\nsamples = 2\nvalue = [2, 0]"] ;
72 -> 73 ;
74 [label="gini = 0.0\nsamples = 3\nvalue = [0, 3]"] ;
72 -> 74 ;
75 [label="gini = 0.0\nsamples = 16\nvalue = [0, 16]"] ;
71 -> 75 ;
76 [label="gini = 0.0\nsamples = 77\nvalue = [0, 77]"] ;
62 -> 76 ;
}